digraph Tree {
node [shape=box, fontname="helvetica"] ;
edge [fontname="helvetica"] ;
0 [label="Platelet Count <= -0.299\nentropy = 1.0\nsamples = 2190\nvalue = [1122, 1068]"] ;
1 [label="MCHC(g/dl) <= -0.719\nentropy = 0.879\nsamples = 1057\nvalue = [315, 742]"] ;
0 -> 1 [labeldistance=2.5, labelangle=45, headlabel="True"] ;
2 [label="HTC/PCV(%) <= -0.002\nentropy = 0.734\nsamples = 325\nvalue = [67, 258]"] ;
1 -> 2 ;
3 [label="HTC/PCV(%) <= -0.308\nentropy = 0.452\nsamples = 116\nvalue = [11, 105]"] ;
2 -> 3 ;
4 [label="Total Cir.Eosinophils <= -0.617\nentropy = 0.612\nsamples = 73\nvalue = [11, 62]"] ;
3 -> 4 ;
5 [label="Total Cir.Eosinophils <= -1.26\nentropy = 0.918\nsamples = 6\nvalue = [4, 2]"] ;
4 -> 5 ;
6 [label="entropy = 0.0\nsamples = 2\nvalue = [0, 2]"] ;
5 -> 6 ;
7 [label="entropy = 0.0\nsamples = 4\nvalue = [4, 0]"] ;
5 -> 7 ;
8 [label="Total WBC count(/cumm) <= -0.843\nentropy = 0.483\nsamples = 67\nvalue = [7, 60]"] ;
4 -> 8 ;
9 [label="entropy = 0.0\nsamples = 2\nvalue = [2, 0]"] ;
8 -> 9 ;
10 [label="MCH(pg) <= -1.848\nentropy = 0.391\nsamples = 65\nvalue = [5, 60]"] ;
8 -> 10 ;
11 [label="entropy = 0.0\nsamples = 1\nvalue = [1, 0]"] ;
10 -> 11 ;
12 [label="MCH(pg) <= -0.413\nentropy = 0.337\nsamples = 64\nvalue = [4, 60]"] ;
10 -> 12 ;
13 [label="entropy = 0.0\nsamples = 40\nvalue = [0, 40]"] ;
12 -> 13 ;
14 [label="MCH(pg) <= -0.299\nentropy = 0.65\nsamples = 24\nvalue = [4, 20]"] ;
12 -> 14 ;
15 [label="Platelet Count <= -1.003\nentropy = 0.918\nsamples = 12\nvalue = [4, 8]"] ;
14 -> 15 ;
16 [label="entropy = 0.0\nsamples = 6\nvalue = [0, 6]"] ;
15 -> 16 ;
17 [label="Total Cir.Eosinophils <= -0.542\nentropy = 0.918\nsamples = 6\nvalue = [4, 2]"] ;
15 -> 17 ;
18 [label="entropy = 0.0\nsamples = 2\nvalue = [0, 2]"] ;
17 -> 18 ;
19 [label="entropy = 0.0\nsamples = 4\nvalue = [4, 0]"] ;
17 -> 19 ;
20 [label="entropy = 0.0\nsamples = 12\nvalue = [0, 12]"] ;
14 -> 20 ;
21 [label="entropy = 0.0\nsamples = 43\nvalue = [0, 43]"] ;
3 -> 21 ;
22 [label="Total Cir.Eosinophils <= -0.698\nentropy = 0.838\nsamples = 209\nvalue = [56, 153]"] ;
2 -> 22 ;
23 [label="entropy = 0.0\nsamples = 13\nvalue = [0, 13]"] ;
22 -> 23 ;
24 [label="MCHC(g/dl) <= -0.842\nentropy = 0.863\nsamples = 196\nvalue = [56, 140]"] ;
22 -> 24 ;
25 [label="Neutrophils <= 0.426\nentropy = 0.889\nsamples = 183\nvalue = [56, 127]"] ;
24 -> 25 ;
26 [label="Total WBC count(/cumm) <= -0.415\nentropy = 0.851\nsamples = 170\nvalue = [47, 123]"] ;
25 -> 26 ;
27 [label="RDW-CV(%) <= 0.666\nentropy = 0.691\nsamples = 81\nvalue = [15, 66]"] ;
26 -> 27 ;
28 [label="MCH(pg) <= -0.249\nentropy = 0.767\nsamples = 67\nvalue = [15, 52]"] ;
27 -> 28 ;
29 [label="Age <= -0.268\nentropy = 0.879\nsamples = 47\nvalue = [14, 33]"] ;
28 -> 29 ;
30 [label="Total Cir.Eosinophils <= -0.287\nentropy = 0.691\nsamples = 27\nvalue = [5, 22]"] ;
29 -> 30 ;
31 [label="MCHC(g/dl) <= -0.96\nentropy = 0.918\nsamples = 3\nvalue = [2, 1]"] ;
30 -> 31 ;
32 [label="entropy = 0.0\nsamples = 1\nvalue = [0, 1]"] ;
31 -> 32 ;
33 [label="entropy = 0.0\nsamples = 2\nvalue = [2, 0]"] ;
31 -> 33 ;
34 [label="MCHC(g/dl) <= -1.605\nentropy = 0.544\nsamples = 24\nvalue = [3, 21]"] ;
30 -> 34 ;
35 [label="Total Cir.Eosinophils <= 0.373\nentropy = 0.918\nsamples = 9\nvalue = [3, 6]"] ;
34 -> 35 ;
36 [label="MCH(pg) <= -0.809\nentropy = 0.65\nsamples = 6\nvalue = [1, 5]"] ;
35 -> 36 ;
37 [label="entropy = 0.0\nsamples = 5\nvalue = [0, 5]"] ;
36 -> 37 ;
38 [label="entropy = 0.0\nsamples = 1\nvalue = [1, 0]"] ;
36 -> 38 ;
39 [label="Platelet Count <= -0.73\nentropy = 0.918\nsamples = 3\nvalue = [2, 1]"] ;
35 -> 39 ;
40 [label="entropy = 0.0\nsamples = 2\nvalue = [2, 0]"] ;
39 -> 40 ;
41 [label="entropy = 0.0\nsamples = 1\nvalue = [0, 1]"] ;
39 -> 41 ;
42 [label="entropy = 0.0\nsamples = 15\nvalue = [0, 15]"] ;
34 -> 42 ;
43 [label="HTC/PCV(%) <= 0.793\nentropy = 0.993\nsamples = 20\nvalue = [9, 11]"] ;
29 -> 43 ;
44 [label="Total Cir.Eosinophils <= 1.097\nentropy = 0.998\nsamples = 17\nvalue = [9, 8]"] ;
43 -> 44 ;
45 [label="RDW-CV(%) <= 0.335\nentropy = 0.971\nsamples = 15\nvalue = [9, 6]"] ;
44 -> 45 ;
46 [label="Total Cir.Eosinophils <= 0.732\nentropy = 0.994\nsamples = 11\nvalue = [5, 6]"] ;
45 -> 46 ;
47 [label="Age <= 0.604\nentropy = 0.811\nsamples = 8\nvalue = [2, 6]"] ;
46 -> 47 ;
48 [label="entropy = 0.0\nsamples = 5\nvalue = [0, 5]"] ;
47 -> 48 ;
49 [label="MCH(pg) <= -0.935\nentropy = 0.918\nsamples = 3\nvalue = [2, 1]"] ;
47 -> 49 ;
50 [label="entropy = 0.0\nsamples = 1\nvalue = [0, 1]"] ;
49 -> 50 ;
51 [label="entropy = 0.0\nsamples = 2\nvalue = [2, 0]"] ;
49 -> 51 ;
52 [label="entropy = 0.0\nsamples = 3\nvalue = [3, 0]"] ;
46 -> 52 ;
53 [label="entropy = 0.0\nsamples = 4\nvalue = [4, 0]"] ;
45 -> 53 ;
54 [label="entropy = 0.0\nsamples = 2\nvalue = [0, 2]"] ;
44 -> 54 ;
55 [label="entropy = 0.0\nsamples = 3\nvalue = [0, 3]"] ;
43 -> 55 ;
56 [label="RDW-CV(%) <= 0.35\nentropy = 0.286\nsamples = 20\nvalue = [1, 19]"] ;
28 -> 56 ;
57 [label="entropy = 0.0\nsamples = 14\nvalue = [0, 14]"] ;
56 -> 57 ;
58 [label="RDW-CV(%) <= 0.364\nentropy = 0.65\nsamples = 6\nvalue = [1, 5]"] ;
56 -> 58 ;
59 [label="entropy = 0.0\nsamples = 1\nvalue = [1, 0]"] ;
58 -> 59 ;
60 [label="entropy = 0.0\nsamples = 5\nvalue = [0, 5]"] ;
58 -> 60 ;
61 [label="entropy = 0.0\nsamples = 14\nvalue = [0, 14]"] ;
27 -> 61 ;
62 [label="Sex <= -0.048\nentropy = 0.942\nsamples = 89\nvalue = [32, 57]"] ;
26 -> 62 ;
63 [label="MCH(pg) <= -0.328\nentropy = 0.773\nsamples = 44\nvalue = [10, 34]"] ;
62 -> 63 ;
64 [label="RDW-CV(%) <= 1.006\nentropy = 0.966\nsamples = 23\nvalue = [9, 14]"] ;
63 -> 64 ;
65 [label="Lymphocytes <= -0.713\nentropy = 0.998\nsamples = 17\nvalue = [9, 8]"] ;
64 -> 65 ;
66 [label="entropy = 0.0\nsamples = 3\nvalue = [3, 0]"] ;
65 -> 66 ;
67 [label="Total WBC count(/cumm) <= -0.183\nentropy = 0.985\nsamples = 14\nvalue = [6, 8]"] ;
65 -> 67 ;
68 [label="Neutrophils <= 0.018\nentropy = 0.811\nsamples = 8\nvalue = [6, 2]"] ;
67 -> 68 ;
69 [label="entropy = 0.0\nsamples = 5\nvalue = [5, 0]"] ;
68 -> 69 ;
70 [label="Platelet Count <= -0.905\nentropy = 0.918\nsamples = 3\nvalue = [1, 2]"] ;
68 -> 70 ;
71 [label="entropy = 0.0\nsamples = 1\nvalue = [1, 0]"] ;
70 -> 71 ;
72 [label="entropy = 0.0\nsamples = 2\nvalue = [0, 2]"] ;
70 -> 72 ;
73 [label="entropy = 0.0\nsamples = 6\nvalue = [0, 6]"] ;
67 -> 73 ;
74 [label="entropy = 0.0\nsamples = 6\nvalue = [0, 6]"] ;
64 -> 74 ;
75 [label="RDW-CV(%) <= 1.049\nentropy = 0.276\nsamples = 21\nvalue = [1, 20]"] ;
63 -> 75 ;
76 [label="entropy = 0.0\nsamples = 18\nvalue = [0, 18]"] ;
75 -> 76 ;
77 [label="Platelet Count <= -0.555\nentropy = 0.918\nsamples = 3\nvalue = [1, 2]"] ;
75 -> 77 ;
78 [label="entropy = 0.0\nsamples = 2\nvalue = [0, 2]"] ;
77 -> 78 ;
79 [label="entropy = 0.0\nsamples = 1\nvalue = [1, 0]"] ;
77 -> 79 ;
80 [label="MCH(pg) <= -0.155\nentropy = 1.0\nsamples = 45\nvalue = [22, 23]"] ;
62 -> 80 ;
81 [label="MCHC(g/dl) <= -0.897\nentropy = 0.968\nsamples = 38\nvalue = [15, 23]"] ;
80 -> 81 ;
82 [label="Age <= -0.626\nentropy = 0.928\nsamples = 35\nvalue = [12, 23]"] ;
81 -> 82 ;
83 [label="Hemoglobin(Hb%) <= -0.451\nentropy = 0.946\nsamples = 11\nvalue = [7, 4]"] ;
82 -> 83 ;
84 [label="entropy = 0.0\nsamples = 5\nvalue = [5, 0]"] ;
83 -> 84 ;
85 [label="HTC/PCV(%) <= 0.185\nentropy = 0.918\nsamples = 6\nvalue = [2, 4]"] ;
83 -> 85 ;
86 [label="entropy = 0.0\nsamples = 2\nvalue = [2, 0]"] ;
85 -> 86 ;
87 [label="entropy = 0.0\nsamples = 4\nvalue = [0, 4]"] ;
85 -> 87 ;
88 [label="Platelet Count <= -0.851\nentropy = 0.738\nsamples = 24\nvalue = [5, 19]"] ;
82 -> 88 ;
89 [label="entropy = 0.0\nsamples = 10\nvalue = [0, 10]"] ;
88 -> 89 ;
90 [label="MCH(pg) <= -0.684\nentropy = 0.94\nsamples = 14\nvalue = [5, 9]"] ;
88 -> 90 ;
91 [label="entropy = 0.0\nsamples = 4\nvalue = [0, 4]"] ;
90 -> 91 ;
92 [label="MCH(pg) <= -0.439\nentropy = 1.0\nsamples = 10\nvalue = [5, 5]"] ;
90 -> 92 ;
93 [label="entropy = 0.0\nsamples = 4\nvalue = [4, 0]"] ;
92 -> 93 ;
94 [label="Total Cir.Eosinophils <= 0.402\nentropy = 0.65\nsamples = 6\nvalue = [1, 5]"] ;
92 -> 94 ;
95 [label="Neutrophils <= 0.222\nentropy = 1.0\nsamples = 2\nvalue = [1, 1]"] ;
94 -> 95 ;
96 [label="entropy = 0.0\nsamples = 1\nvalue = [1, 0]"] ;
95 -> 96 ;
97 [label="entropy = 0.0\nsamples = 1\nvalue = [0, 1]"] ;
95 -> 97 ;
98 [label="entropy = 0.0\nsamples = 4\nvalue = [0, 4]"] ;
94 -> 98 ;
99 [label="entropy = 0.0\nsamples = 3\nvalue = [3, 0]"] ;
81 -> 99 ;
100 [label="entropy = 0.0\nsamples = 7\nvalue = [7, 0]"] ;
80 -> 100 ;
101 [label="Total WBC count(/cumm) <= -0.058\nentropy = 0.89\nsamples = 13\nvalue = [9, 4]"] ;
25 -> 101 ;
102 [label="MCHC(g/dl) <= -1.015\nentropy = 0.991\nsamples = 9\nvalue = [5, 4]"] ;
101 -> 102 ;
103 [label="Hemoglobin(Hb%) <= -1.12\nentropy = 0.985\nsamples = 7\nvalue = [3, 4]"] ;
102 -> 103 ;
104 [label="MCH(pg) <= -0.786\nentropy = 0.811\nsamples = 4\nvalue = [3, 1]"] ;
103 -> 104 ;
105 [label="entropy = 0.0\nsamples = 1\nvalue = [0, 1]"] ;
104 -> 105 ;
106 [label="entropy = 0.0\nsamples = 3\nvalue = [3, 0]"] ;
104 -> 106 ;
107 [label="entropy = 0.0\nsamples = 3\nvalue = [0, 3]"] ;
103 -> 107 ;
108 [label="entropy = 0.0\nsamples = 2\nvalue = [2, 0]"] ;
102 -> 108 ;
109 [label="entropy = 0.0\nsamples = 4\nvalue = [4, 0]"] ;
101 -> 109 ;
110 [label="entropy = 0.0\nsamples = 13\nvalue = [0, 13]"] ;
24 -> 110 ;
111 [label="Neutrophils <= 0.732\nentropy = 0.924\nsamples = 732\nvalue = [248.0, 484.0]"] ;
1 -> 111 ;
112 [label="HTC/PCV(%) <= 1.718\nentropy = 0.895\nsamples = 594\nvalue = [185.0, 409.0]"] ;
111 -> 112 ;
113 [label="HTC/PCV(%) <= 1.091\nentropy = 0.888\nsamples = 589\nvalue = [180, 409]"] ;
112 -> 113 ;
114 [label="HTC/PCV(%) <= 0.945\nentropy = 0.906\nsamples = 538\nvalue = [173, 365]"] ;
113 -> 114 ;
115 [label="Lymphocytes <= 0.865\nentropy = 0.884\nsamples = 503\nvalue = [152, 351]"] ;
114 -> 115 ;
116 [label="Total Cir.Eosinophils <= -0.606\nentropy = 0.914\nsamples = 431\nvalue = [142, 289]"] ;
115 -> 116 ;
117 [label="MCHC(g/dl) <= -0.318\nentropy = 0.999\nsamples = 91\nvalue = [44.0, 47.0]"] ;
116 -> 117 ;
118 [label="MCHC(g/dl) <= -0.606\nentropy = 0.738\nsamples = 24\nvalue = [19, 5]"] ;
117 -> 118 ;
119 [label="Age <= -0.849\nentropy = 0.994\nsamples = 11\nvalue = [6, 5]"] ;
118 -> 119 ;
120 [label="entropy = 0.0\nsamples = 2\nvalue = [2, 0]"] ;
119 -> 120 ;
121 [label="Hemoglobin(Hb%) <= 0.644\nentropy = 0.991\nsamples = 9\nvalue = [4, 5]"] ;
119 -> 121 ;
122 [label="Total Cir.Eosinophils <= -0.889\nentropy = 0.954\nsamples = 8\nvalue = [3, 5]"] ;
121 -> 122 ;
123 [label="entropy = 0.0\nsamples = 3\nvalue = [0, 3]"] ;
122 -> 123 ;
124 [label="Hemoglobin(Hb%) <= -0.259\nentropy = 0.971\nsamples = 5\nvalue = [3, 2]"] ;
122 -> 124 ;
125 [label="entropy = 0.0\nsamples = 3\nvalue = [3, 0]"] ;
124 -> 125 ;
126 [label="entropy = 0.0\nsamples = 2\nvalue = [0, 2]"] ;
124 -> 126 ;
127 [label="entropy = 0.0\nsamples = 1\nvalue = [1, 0]"] ;
121 -> 127 ;
128 [label="entropy = 0.0\nsamples = 13\nvalue = [13, 0]"] ;
118 -> 128 ;
129 [label="RDW-CV(%) <= 0.076\nentropy = 0.953\nsamples = 67\nvalue = [25, 42]"] ;
117 -> 129 ;
130 [label="Hemoglobin(Hb%) <= -1.485\nentropy = 0.998\nsamples = 34\nvalue = [18, 16]"] ;
129 -> 130 ;
131 [label="entropy = 0.0\nsamples = 4\nvalue = [0, 4]"] ;
130 -> 131 ;
132 [label="Total WBC count(/cumm) <= -0.362\nentropy = 0.971\nsamples = 30\nvalue = [18, 12]"] ;
130 -> 132 ;
133 [label="Neutrophils <= -1.003\nentropy = 0.918\nsamples = 12\nvalue = [4, 8]"] ;
132 -> 133 ;
134 [label="entropy = 0.0\nsamples = 3\nvalue = [3, 0]"] ;
133 -> 134 ;
135 [label="Hemoglobin(Hb%) <= -0.316\nentropy = 0.503\nsamples = 9\nvalue = [1, 8]"] ;
133 -> 135 ;
136 [label="HTC/PCV(%) <= -1.06\nentropy = 1.0\nsamples = 2\nvalue = [1, 1]"] ;
135 -> 136 ;
137 [label="entropy = 0.0\nsamples = 1\nvalue = [1, 0]"] ;
136 -> 137 ;
138 [label="entropy = 0.0\nsamples = 1\nvalue = [0, 1]"] ;
136 -> 138 ;
139 [label="entropy = 0.0\nsamples = 7\nvalue = [0, 7]"] ;
135 -> 139 ;
140 [label="Hemoglobin(Hb%) <= 0.182\nentropy = 0.764\nsamples = 18\nvalue = [14, 4]"] ;
132 -> 140 ;
141 [label="Neutrophils <= -0.187\nentropy = 0.971\nsamples = 10\nvalue = [6, 4]"] ;
140 -> 141 ;
142 [label="MCH(pg) <= -1.039\nentropy = 0.722\nsamples = 5\nvalue = [1, 4]"] ;
141 -> 142 ;
143 [label="entropy = 0.0\nsamples = 1\nvalue = [1, 0]"] ;
142 -> 143 ;
144 [label="entropy = 0.0\nsamples = 4\nvalue = [0, 4]"] ;
142 -> 144 ;
145 [label="entropy = 0.0\nsamples = 5\nvalue = [5, 0]"] ;
141 -> 145 ;
146 [label="entropy = 0.0\nsamples = 8\nvalue = [8, 0]"] ;
140 -> 146 ;
147 [label="Hemoglobin(Hb%) <= 0.263\nentropy = 0.746\nsamples = 33\nvalue = [7, 26]"] ;
129 -> 147 ;
148 [label="RDW-CV(%) <= 0.36\nentropy = 0.949\nsamples = 19\nvalue = [7, 12]"] ;
147 -> 148 ;
149 [label="entropy = 0.0\nsamples = 5\nvalue = [0, 5]"] ;
148 -> 149 ;
150 [label="Sex <= -0.048\nentropy = 1.0\nsamples = 14\nvalue = [7, 7]"] ;
148 -> 150 ;
151 [label="HTC/PCV(%) <= 0.538\nentropy = 0.811\nsamples = 8\nvalue = [2, 6]"] ;
150 -> 151 ;
152 [label="entropy = 0.0\nsamples = 6\nvalue = [0, 6]"] ;
151 -> 152 ;
153 [label="entropy = 0.0\nsamples = 2\nvalue = [2, 0]"] ;
151 -> 153 ;
154 [label="Neutrophils <= 0.12\nentropy = 0.65\nsamples = 6\nvalue = [5, 1]"] ;
150 -> 154 ;
155 [label="entropy = 0.0\nsamples = 5\nvalue = [5, 0]"] ;
154 -> 155 ;
156 [label="entropy = 0.0\nsamples = 1\nvalue = [0, 1]"] ;
154 -> 156 ;
157 [label="entropy = 0.0\nsamples = 14\nvalue = [0, 14]"] ;
147 -> 157 ;
158 [label="Platelet Count <= -1.337\nentropy = 0.866\nsamples = 340\nvalue = [98.0, 242.0]"] ;
116 -> 158 ;
159 [label="entropy = 0.0\nsamples = 3\nvalue = [3, 0]"] ;
158 -> 159 ;
160 [label="Age <= 1.118\nentropy = 0.858\nsamples = 337\nvalue = [95, 242]"] ;
158 -> 160 ;
161 [label="MCH(pg) <= 0.529\nentropy = 0.827\nsamples = 304\nvalue = [79.0, 225.0]"] ;
160 -> 161 ;
162 [label="MCH(pg) <= 0.283\nentropy = 0.75\nsamples = 205\nvalue = [44, 161]"] ;
161 -> 162 ;
163 [label="Lymphocytes <= 0.212\nentropy = 0.807\nsamples = 178\nvalue = [44, 134]"] ;
162 -> 163 ;
164 [label="Total Cir.Eosinophils <= -0.032\nentropy = 0.87\nsamples = 141\nvalue = [41, 100]"] ;
163 -> 164 ;
165 [label="Total Cir.Eosinophils <= -0.374\nentropy = 0.489\nsamples = 47\nvalue = [5, 42]"] ;
164 -> 165 ;
166 [label="MCH(pg) <= 0.128\nentropy = 0.918\nsamples = 15\nvalue = [5, 10]"] ;
165 -> 166 ;
167 [label="HTC/PCV(%) <= 0.081\nentropy = 0.954\nsamples = 8\nvalue = [5, 3]"] ;
166 -> 167 ;
168 [label="entropy = 0.0\nsamples = 3\nvalue = [0, 3]"] ;
167 -> 168 ;
169 [label="entropy = 0.0\nsamples = 5\nvalue = [5, 0]"] ;
167 -> 169 ;
170 [label="entropy = 0.0\nsamples = 7\nvalue = [0, 7]"] ;
166 -> 170 ;
171 [label="entropy = 0.0\nsamples = 32\nvalue = [0, 32]"] ;
165 -> 171 ;
172 [label="Lymphocytes <= -0.55\nentropy = 0.96\nsamples = 94\nvalue = [36, 58]"] ;
164 -> 172 ;
173 [label="Platelet Count <= -0.892\nentropy = 0.732\nsamples = 39\nvalue = [8.0, 31.0]"] ;
172 -> 173 ;
174 [label="entropy = 0.0\nsamples = 13\nvalue = [0, 13]"] ;
173 -> 174 ;
175 [label="Total Cir.Eosinophils <= 0.616\nentropy = 0.89\nsamples = 26\nvalue = [8, 18]"] ;
173 -> 175 ;
176 [label="Total Cir.Eosinophils <= 0.344\nentropy = 0.991\nsamples = 18\nvalue = [8, 10]"] ;
175 -> 176 ;
177 [label="RDW-CV(%) <= 0.005\nentropy = 0.863\nsamples = 14\nvalue = [4, 10]"] ;
176 -> 177 ;
178 [label="Hemoglobin(Hb%) <= 0.162\nentropy = 0.985\nsamples = 7\nvalue = [4, 3]"] ;
177 -> 178 ;
179 [label="Age <= -0.916\nentropy = 0.811\nsamples = 4\nvalue = [1, 3]"] ;
178 -> 179 ;
180 [label="entropy = 0.0\nsamples = 1\nvalue = [1, 0]"] ;
179 -> 180 ;
181 [label="entropy = 0.0\nsamples = 3\nvalue = [0, 3]"] ;
179 -> 181 ;
182 [label="entropy = 0.0\nsamples = 3\nvalue = [3, 0]"] ;
178 -> 182 ;
183 [label="entropy = 0.0\nsamples = 7\nvalue = [0, 7]"] ;
177 -> 183 ;
184 [label="entropy = 0.0\nsamples = 4\nvalue = [4, 0]"] ;
176 -> 184 ;
185 [label="entropy = 0.0\nsamples = 8\nvalue = [0, 8]"] ;
175 -> 185 ;
186 [label="MCH(pg) <= -0.492\nentropy = 1.0\nsamples = 55\nvalue = [28.0, 27.0]"] ;
172 -> 186 ;
187 [label="entropy = 0.0\nsamples = 5\nvalue = [0, 5]"] ;
186 -> 187 ;
188 [label="Hemoglobin(Hb%) <= 0.715\nentropy = 0.99\nsamples = 50\nvalue = [28.0, 22.0]"] ;
186 -> 188 ;
189 [label="MCH(pg) <= -0.275\nentropy = 1.0\nsamples = 44\nvalue = [22, 22]"] ;
188 -> 189 ;
190 [label="entropy = 0.0\nsamples = 5\nvalue = [5, 0]"] ;
189 -> 190 ;
191 [label="Total WBC count(/cumm) <= -0.608\nentropy = 0.988\nsamples = 39\nvalue = [17, 22]"] ;
189 -> 191 ;
192 [label="entropy = 0.0\nsamples = 4\nvalue = [0, 4]"] ;
191 -> 192 ;
193 [label="Total WBC count(/cumm) <= 0.271\nentropy = 0.999\nsamples = 35\nvalue = [17, 18]"] ;
191 -> 193 ;
194 [label="Total Cir.Eosinophils <= 0.593\nentropy = 0.997\nsamples = 32\nvalue = [17, 15]"] ;
193 -> 194 ;
195 [label="Age <= 0.201\nentropy = 0.837\nsamples = 15\nvalue = [11, 4]"] ;
194 -> 195 ;
196 [label="Neutrophils <= -0.34\nentropy = 0.414\nsamples = 12\nvalue = [11, 1]"] ;
195 -> 196 ;
197 [label="entropy = 0.0\nsamples = 1\nvalue = [0, 1]"] ;
196 -> 197 ;
198 [label="entropy = 0.0\nsamples = 11\nvalue = [11, 0]"] ;
196 -> 198 ;
199 [label="entropy = 0.0\nsamples = 3\nvalue = [0, 3]"] ;
195 -> 199 ;
200 [label="Age <= 0.425\nentropy = 0.937\nsamples = 17\nvalue = [6, 11]"] ;
194 -> 200 ;
201 [label="Platelet Count <= -0.736\nentropy = 0.75\nsamples = 14\nvalue = [3, 11]"] ;
200 -> 201 ;
202 [label="Total Cir.Eosinophils <= 0.854\nentropy = 0.971\nsamples = 5\nvalue = [3, 2]"] ;
201 -> 202 ;
203 [label="entropy = 0.0\nsamples = 2\nvalue = [0, 2]"] ;
202 -> 203 ;
204 [label="entropy = 0.0\nsamples = 3\nvalue = [3, 0]"] ;
202 -> 204 ;
205 [label="entropy = 0.0\nsamples = 9\nvalue = [0, 9]"] ;
201 -> 205 ;
206 [label="entropy = 0.0\nsamples = 3\nvalue = [3, 0]"] ;
200 -> 206 ;
207 [label="entropy = 0.0\nsamples = 3\nvalue = [0, 3]"] ;
193 -> 207 ;
208 [label="entropy = 0.0\nsamples = 6\nvalue = [6, 0]"] ;
188 -> 208 ;
209 [label="HTC/PCV(%) <= -0.594\nentropy = 0.406\nsamples = 37\nvalue = [3, 34]"] ;
163 -> 209 ;
210 [label="Total Cir.Eosinophils <= 0.205\nentropy = 0.845\nsamples = 11\nvalue = [3, 8]"] ;
209 -> 210 ;
211 [label="Lymphocytes <= 0.321\nentropy = 0.811\nsamples = 4\nvalue = [3, 1]"] ;
210 -> 211 ;
212 [label="entropy = 0.0\nsamples = 1\nvalue = [0, 1]"] ;
211 -> 212 ;
213 [label="entropy = 0.0\nsamples = 3\nvalue = [3, 0]"] ;
211 -> 213 ;
214 [label="entropy = 0.0\nsamples = 7\nvalue = [0, 7]"] ;
210 -> 214 ;
215 [label="entropy = 0.0\nsamples = 26\nvalue = [0, 26]"] ;
209 -> 215 ;
216 [label="entropy = 0.0\nsamples = 27\nvalue = [0, 27]"] ;
162 -> 216 ;
217 [label="Lymphocytes <= 0.539\nentropy = 0.937\nsamples = 99\nvalue = [35, 64]"] ;
161 -> 217 ;
218 [label="Hemoglobin(Hb%) <= 1.5\nentropy = 0.85\nsamples = 76\nvalue = [21.0, 55.0]"] ;
217 -> 218 ;
219 [label="Lymphocytes <= 0.212\nentropy = 0.822\nsamples = 74\nvalue = [19, 55]"] ;
218 -> 219 ;
220 [label="Platelet Count <= -0.987\nentropy = 0.881\nsamples = 60\nvalue = [18, 42]"] ;
219 -> 220 ;
221 [label="entropy = 0.0\nsamples = 9\nvalue = [0, 9]"] ;
220 -> 221 ;
222 [label="Total Cir.Eosinophils <= -0.119\nentropy = 0.937\nsamples = 51\nvalue = [18, 33]"] ;
220 -> 222 ;
223 [label="entropy = 0.0\nsamples = 2\nvalue = [2, 0]"] ;
222 -> 223 ;
224 [label="Platelet Count <= -0.859\nentropy = 0.911\nsamples = 49\nvalue = [16.0, 33.0]"] ;
222 -> 224 ;
225 [label="Age <= 0.067\nentropy = 0.985\nsamples = 14\nvalue = [8, 6]"] ;
224 -> 225 ;
226 [label="RDW-CV(%) <= -1.273\nentropy = 1.0\nsamples = 12\nvalue = [6, 6]"] ;
225 -> 226 ;
227 [label="entropy = 0.0\nsamples = 2\nvalue = [2, 0]"] ;
226 -> 227 ;
228 [label="Platelet Count <= -0.879\nentropy = 0.971\nsamples = 10\nvalue = [4, 6]"] ;
226 -> 228 ;
229 [label="Sex <= -0.048\nentropy = 0.811\nsamples = 8\nvalue = [2, 6]"] ;
228 -> 229 ;
230 [label="Total Cir.Eosinophils <= 0.726\nentropy = 1.0\nsamples = 4\nvalue = [2, 2]"] ;
229 -> 230 ;
231 [label="entropy = 0.0\nsamples = 2\nvalue = [0, 2]"] ;
230 -> 231 ;
232 [label="entropy = 0.0\nsamples = 2\nvalue = [2, 0]"] ;
230 -> 232 ;
233 [label="entropy = 0.0\nsamples = 4\nvalue = [0, 4]"] ;
229 -> 233 ;
234 [label="entropy = 0.0\nsamples = 2\nvalue = [2, 0]"] ;
228 -> 234 ;
235 [label="entropy = 0.0\nsamples = 2\nvalue = [2, 0]"] ;
225 -> 235 ;
236 [label="Total Cir.Eosinophils <= 0.419\nentropy = 0.776\nsamples = 35\nvalue = [8, 27]"] ;
224 -> 236 ;
237 [label="Total Cir.Eosinophils <= 0.344\nentropy = 0.959\nsamples = 21\nvalue = [8, 13]"] ;
236 -> 237 ;
238 [label="Platelet Count <= -0.468\nentropy = 0.75\nsamples = 14\nvalue = [3, 11]"] ;
237 -> 238 ;
239 [label="entropy = 0.0\nsamples = 8\nvalue = [0, 8]"] ;
238 -> 239 ;
240 [label="Hemoglobin(Hb%) <= -0.016\nentropy = 1.0\nsamples = 6\nvalue = [3, 3]"] ;
238 -> 240 ;
241 [label="entropy = 0.0\nsamples = 2\nvalue = [2, 0]"] ;
240 -> 241 ;
242 [label="Age <= -0.849\nentropy = 0.811\nsamples = 4\nvalue = [1, 3]"] ;
240 -> 242 ;
243 [label="Age <= -1.05\nentropy = 1.0\nsamples = 2\nvalue = [1, 1]"] ;
242 -> 243 ;
244 [label="entropy = 0.0\nsamples = 1\nvalue = [0, 1]"] ;
243 -> 244 ;
245 [label="entropy = 0.0\nsamples = 1\nvalue = [1, 0]"] ;
243 -> 245 ;
246 [label="entropy = 0.0\nsamples = 2\nvalue = [0, 2]"] ;
242 -> 246 ;
247 [label="Platelet Count <= -0.447\nentropy = 0.863\nsamples = 7\nvalue = [5, 2]"] ;
237 -> 247 ;
248 [label="entropy = 0.0\nsamples = 5\nvalue = [5, 0]"] ;
247 -> 248 ;
249 [label="entropy = 0.0\nsamples = 2\nvalue = [0, 2]"] ;
247 -> 249 ;
250 [label="entropy = 0.0\nsamples = 14\nvalue = [0, 14]"] ;
236 -> 250 ;
251 [label="Platelet Count <= -1.099\nentropy = 0.371\nsamples = 14\nvalue = [1, 13]"] ;
219 -> 251 ;
252 [label="entropy = 0.0\nsamples = 1\nvalue = [1, 0]"] ;
251 -> 252 ;
253 [label="entropy = 0.0\nsamples = 13\nvalue = [0, 13]"] ;
251 -> 253 ;
254 [label="entropy = 0.0\nsamples = 2\nvalue = [2, 0]"] ;
218 -> 254 ;
255 [label="HTC/PCV(%) <= 0.348\nentropy = 0.966\nsamples = 23\nvalue = [14, 9]"] ;
217 -> 255 ;
256 [label="Lymphocytes <= 0.647\nentropy = 0.696\nsamples = 16\nvalue = [13, 3]"] ;
255 -> 256 ;
257 [label="Total Cir.Eosinophils <= 0.715\nentropy = 0.954\nsamples = 8\nvalue = [5, 3]"] ;
256 -> 257 ;
258 [label="Total WBC count(/cumm) <= 0.078\nentropy = 0.65\nsamples = 6\nvalue = [5, 1]"] ;
257 -> 258 ;
259 [label="entropy = 0.0\nsamples = 5\nvalue = [5, 0]"] ;
258 -> 259 ;
260 [label="entropy = 0.0\nsamples = 1\nvalue = [0, 1]"] ;
258 -> 260 ;
261 [label="entropy = 0.0\nsamples = 2\nvalue = [0, 2]"] ;
257 -> 261 ;
262 [label="entropy = 0.0\nsamples = 8\nvalue = [8, 0]"] ;
256 -> 262 ;
263 [label="RDW-CV(%) <= -0.776\nentropy = 0.592\nsamples = 7\nvalue = [1, 6]"] ;
255 -> 263 ;
264 [label="entropy = 0.0\nsamples = 1\nvalue = [1, 0]"] ;
263 -> 264 ;
265 [label="entropy = 0.0\nsamples = 6\nvalue = [0, 6]"] ;
263 -> 265 ;
266 [label="MCHC(g/dl) <= 1.509\nentropy = 0.999\nsamples = 33\nvalue = [16, 17]"] ;
160 -> 266 ;
267 [label="Neutrophils <= -0.187\nentropy = 0.975\nsamples = 27\nvalue = [16, 11]"] ;
266 -> 267 ;
268 [label="Platelet Count <= -0.883\nentropy = 0.696\nsamples = 16\nvalue = [13, 3]"] ;
267 -> 268 ;
269 [label="entropy = 0.0\nsamples = 8\nvalue = [8, 0]"] ;
268 -> 269 ;
270 [label="Platelet Count <= -0.6\nentropy = 0.954\nsamples = 8\nvalue = [5, 3]"] ;
268 -> 270 ;
271 [label="MCHC(g/dl) <= 1.037\nentropy = 0.811\nsamples = 4\nvalue = [1, 3]"] ;
270 -> 271 ;
272 [label="entropy = 0.0\nsamples = 3\nvalue = [0, 3]"] ;
271 -> 272 ;
273 [label="entropy = 0.0\nsamples = 1\nvalue = [1, 0]"] ;
271 -> 273 ;
274 [label="entropy = 0.0\nsamples = 4\nvalue = [4, 0]"] ;
270 -> 274 ;
275 [label="MCH(pg) <= 0.969\nentropy = 0.845\nsamples = 11\nvalue = [3, 8]"] ;
267 -> 275 ;
276 [label="RDW-CV(%) <= 0.832\nentropy = 0.503\nsamples = 9\nvalue = [1, 8]"] ;
275 -> 276 ;
277 [label="entropy = 0.0\nsamples = 8\nvalue = [0, 8]"] ;
276 -> 277 ;
278 [label="entropy = 0.0\nsamples = 1\nvalue = [1, 0]"] ;
276 -> 278 ;
279 [label="entropy = 0.0\nsamples = 2\nvalue = [2, 0]"] ;
275 -> 279 ;
280 [label="entropy = 0.0\nsamples = 6\nvalue = [0, 6]"] ;
266 -> 280 ;
281 [label="Platelet Count <= -0.846\nentropy = 0.581\nsamples = 72\nvalue = [10, 62]"] ;
115 -> 281 ;
282 [label="entropy = 0.0\nsamples = 33\nvalue = [0, 33]"] ;
281 -> 282 ;
283 [label="Lymphocytes <= 1.192\nentropy = 0.821\nsamples = 39\nvalue = [10, 29]"] ;
281 -> 283 ;
284 [label="Age <= 1.476\nentropy = 0.402\nsamples = 25\nvalue = [2, 23]"] ;
283 -> 284 ;
285 [label="Total WBC count(/cumm) <= 1.593\nentropy = 0.25\nsamples = 24\nvalue = [1, 23]"] ;
284 -> 285 ;
286 [label="entropy = 0.0\nsamples = 22\nvalue = [0, 22]"] ;
285 -> 286 ;
287 [label="RDW-CV(%) <= -0.03\nentropy = 1.0\nsamples = 2\nvalue = [1, 1]"] ;
285 -> 287 ;
288 [label="entropy = 0.0\nsamples = 1\nvalue = [0, 1]"] ;
287 -> 288 ;
289 [label="entropy = 0.0\nsamples = 1\nvalue = [1, 0]"] ;
287 -> 289 ;
290 [label="entropy = 0.0\nsamples = 1\nvalue = [1, 0]"] ;
284 -> 290 ;
291 [label="Total Cir.Eosinophils <= -0.16\nentropy = 0.985\nsamples = 14\nvalue = [8, 6]"] ;
283 -> 291 ;
292 [label="entropy = 0.0\nsamples = 4\nvalue = [4, 0]"] ;
291 -> 292 ;
293 [label="HTC/PCV(%) <= 0.509\nentropy = 0.971\nsamples = 10\nvalue = [4, 6]"] ;
291 -> 293 ;
294 [label="Age <= 1.207\nentropy = 0.918\nsamples = 6\nvalue = [4, 2]"] ;
293 -> 294 ;
295 [label="Sex <= -0.048\nentropy = 0.722\nsamples = 5\nvalue = [4, 1]"] ;
294 -> 295 ;
296 [label="Total WBC count(/cumm) <= -0.415\nentropy = 1.0\nsamples = 2\nvalue = [1, 1]"] ;
295 -> 296 ;
297 [label="entropy = 0.0\nsamples = 1\nvalue = [1, 0]"] ;
296 -> 297 ;
298 [label="entropy = 0.0\nsamples = 1\nvalue = [0, 1]"] ;
296 -> 298 ;
299 [label="entropy = 0.0\nsamples = 3\nvalue = [3, 0]"] ;
295 -> 299 ;
300 [label="entropy = 0.0\nsamples = 1\nvalue = [0, 1]"] ;
294 -> 300 ;
301 [label="entropy = 0.0\nsamples = 4\nvalue = [0, 4]"] ;
293 -> 301 ;
302 [label="Platelet Count <= -1.021\nentropy = 0.971\nsamples = 35\nvalue = [21, 14]"] ;
114 -> 302 ;
303 [label="entropy = 0.0\nsamples = 5\nvalue = [0, 5]"] ;
302 -> 303 ;
304 [label="Total Cir.Eosinophils <= -0.559\nentropy = 0.881\nsamples = 30\nvalue = [21, 9]"] ;
302 -> 304 ;
305 [label="entropy = 0.0\nsamples = 2\nvalue = [0, 2]"] ;
304 -> 305 ;
306 [label="Lymphocytes <= 0.865\nentropy = 0.811\nsamples = 28\nvalue = [21, 7]"] ;
304 -> 306 ;
307 [label="HTC/PCV(%) <= 1.056\nentropy = 0.918\nsamples = 21\nvalue = [14, 7]"] ;
306 -> 307 ;
308 [label="Total Cir.Eosinophils <= -0.189\nentropy = 0.619\nsamples = 13\nvalue = [11, 2]"] ;
307 -> 308 ;
309 [label="MCHC(g/dl) <= -0.412\nentropy = 1.0\nsamples = 4\nvalue = [2, 2]"] ;
308 -> 309 ;
310 [label="entropy = 0.0\nsamples = 2\nvalue = [0, 2]"] ;
309 -> 310 ;
311 [label="entropy = 0.0\nsamples = 2\nvalue = [2, 0]"] ;
309 -> 311 ;
312 [label="entropy = 0.0\nsamples = 9\nvalue = [9, 0]"] ;
308 -> 312 ;
313 [label="Age <= 0.827\nentropy = 0.954\nsamples = 8\nvalue = [3, 5]"] ;
307 -> 313 ;
314 [label="Age <= -1.184\nentropy = 0.65\nsamples = 6\nvalue = [1, 5]"] ;
313 -> 314 ;
315 [label="entropy = 0.0\nsamples = 1\nvalue = [1, 0]"] ;
314 -> 315 ;
316 [label="entropy = 0.0\nsamples = 5\nvalue = [0, 5]"] ;
314 -> 316 ;
317 [label="entropy = 0.0\nsamples = 2\nvalue = [2, 0]"] ;
313 -> 317 ;
318 [label="entropy = 0.0\nsamples = 7\nvalue = [7, 0]"] ;
306 -> 318 ;
319 [label="Sex <= -0.048\nentropy = 0.577\nsamples = 51\nvalue = [7.0, 44.0]"] ;
113 -> 319 ;
320 [label="Platelet Count <= -1.191\nentropy = 0.216\nsamples = 29\nvalue = [1, 28]"] ;
319 -> 320 ;
321 [label="RDW-CV(%) <= -0.244\nentropy = 1.0\nsamples = 2\nvalue = [1, 1]"] ;
320 -> 321 ;
322 [label="entropy = 0.0\nsamples = 1\nvalue = [1, 0]"] ;
321 -> 322 ;
323 [label="entropy = 0.0\nsamples = 1\nvalue = [0, 1]"] ;
321 -> 323 ;
324 [label="entropy = 0.0\nsamples = 27\nvalue = [0, 27]"] ;
320 -> 324 ;
325 [label="HTC/PCV(%) <= 1.374\nentropy = 0.845\nsamples = 22\nvalue = [6, 16]"] ;
319 -> 325 ;
326 [label="MCH(pg) <= -0.1\nentropy = 0.991\nsamples = 9\nvalue = [5, 4]"] ;
325 -> 326 ;
327 [label="entropy = 0.0\nsamples = 4\nvalue = [4, 0]"] ;
326 -> 327 ;
328 [label="RDW-CV(%) <= -1.877\nentropy = 0.722\nsamples = 5\nvalue = [1, 4]"] ;
326 -> 328 ;
329 [label="entropy = 0.0\nsamples = 1\nvalue = [1, 0]"] ;
328 -> 329 ;
330 [label="entropy = 0.0\nsamples = 4\nvalue = [0, 4]"] ;
328 -> 330 ;
331 [label="MCH(pg) <= -1.274\nentropy = 0.391\nsamples = 13\nvalue = [1, 12]"] ;
325 -> 331 ;
332 [label="Lymphocytes <= 0.43\nentropy = 0.918\nsamples = 3\nvalue = [1, 2]"] ;
331 -> 332 ;
333 [label="entropy = 0.0\nsamples = 1\nvalue = [1, 0]"] ;
332 -> 333 ;
334 [label="entropy = 0.0\nsamples = 2\nvalue = [0, 2]"] ;
332 -> 334 ;
335 [label="entropy = 0.0\nsamples = 10\nvalue = [0, 10]"] ;
331 -> 335 ;
336 [label="entropy = 0.0\nsamples = 5\nvalue = [5, 0]"] ;
112 -> 336 ;
337 [label="Total WBC count(/cumm) <= -1.258\nentropy = 0.995\nsamples = 138\nvalue = [63.0, 75.0]"] ;
111 -> 337 ;
338 [label="entropy = 0.0\nsamples = 5\nvalue = [0, 5]"] ;
337 -> 338 ;
339 [label="HTC/PCV(%) <= 1.595\nentropy = 0.998\nsamples = 133\nvalue = [63, 70]"] ;
337 -> 339 ;
340 [label="HTC/PCV(%) <= 0.556\nentropy = 1.0\nsamples = 129\nvalue = [63, 66]"] ;
339 -> 340 ;
341 [label="MCH(pg) <= -1.222\nentropy = 0.985\nsamples = 98\nvalue = [42, 56]"] ;
340 -> 341 ;
342 [label="Lymphocytes <= 0.647\nentropy = 0.371\nsamples = 14\nvalue = [1, 13]"] ;
341 -> 342 ;
343 [label="entropy = 0.0\nsamples = 13\nvalue = [0, 13]"] ;
342 -> 343 ;
344 [label="entropy = 0.0\nsamples = 1\nvalue = [1, 0]"] ;
342 -> 344 ;
345 [label="Total WBC count(/cumm) <= 1.927\nentropy = 1.0\nsamples = 84\nvalue = [41, 43]"] ;
341 -> 345 ;
346 [label="MCHC(g/dl) <= 0.041\nentropy = 0.998\nsamples = 78\nvalue = [41, 37]"] ;
345 -> 346 ;
347 [label="Platelet Count <= -0.87\nentropy = 0.787\nsamples = 17\nvalue = [4, 13]"] ;
346 -> 347 ;
348 [label="Total WBC count(/cumm) <= -0.274\nentropy = 1.0\nsamples = 8\nvalue = [4, 4]"] ;
347 -> 348 ;
349 [label="entropy = 0.0\nsamples = 4\nvalue = [0, 4]"] ;
348 -> 349 ;
350 [label="entropy = 0.0\nsamples = 4\nvalue = [4, 0]"] ;
348 -> 350 ;
351 [label="entropy = 0.0\nsamples = 9\nvalue = [0, 9]"] ;
347 -> 351 ;
352 [label="Neutrophils <= 2.569\nentropy = 0.967\nsamples = 61\nvalue = [37, 24]"] ;
346 -> 352 ;
353 [label="Total WBC count(/cumm) <= -0.858\nentropy = 0.985\nsamples = 56\nvalue = [32, 24]"] ;
352 -> 353 ;
354 [label="Hemoglobin(Hb%) <= -1.451\nentropy = 0.469\nsamples = 10\nvalue = [9, 1]"] ;
353 -> 354 ;
355 [label="entropy = 0.0\nsamples = 1\nvalue = [0, 1]"] ;
354 -> 355 ;
356 [label="entropy = 0.0\nsamples = 9\nvalue = [9, 0]"] ;
354 -> 356 ;
357 [label="HTC/PCV(%) <= 0.21\nentropy = 1.0\nsamples = 46\nvalue = [23, 23]"] ;
353 -> 357 ;
358 [label="HTC/PCV(%) <= -0.272\nentropy = 0.993\nsamples = 42\nvalue = [23.0, 19.0]"] ;
357 -> 358 ;
359 [label="MCH(pg) <= 1.7\nentropy = 0.999\nsamples = 37\nvalue = [18, 19]"] ;
358 -> 359 ;
360 [label="MCH(pg) <= 1.178\nentropy = 0.983\nsamples = 33\nvalue = [14, 19]"] ;
359 -> 360 ;
361 [label="Neutrophils <= 2.467\nentropy = 0.996\nsamples = 26\nvalue = [14, 12]"] ;
360 -> 361 ;
362 [label="RDW-CV(%) <= -0.457\nentropy = 0.966\nsamples = 23\nvalue = [14, 9]"] ;
361 -> 362 ;
363 [label="Total Cir.Eosinophils <= -1.133\nentropy = 0.946\nsamples = 11\nvalue = [4, 7]"] ;
362 -> 363 ;
364 [label="entropy = 0.0\nsamples = 2\nvalue = [2, 0]"] ;
363 -> 364 ;
365 [label="Total Cir.Eosinophils <= 1.45\nentropy = 0.764\nsamples = 9\nvalue = [2, 7]"] ;
363 -> 365 ;
366 [label="entropy = 0.0\nsamples = 6\nvalue = [0, 6]"] ;
365 -> 366 ;
367 [label="Lymphocytes <= 0.484\nentropy = 0.918\nsamples = 3\nvalue = [2, 1]"] ;
365 -> 367 ;
368 [label="entropy = 0.0\nsamples = 2\nvalue = [2, 0]"] ;
367 -> 368 ;
369 [label="entropy = 0.0\nsamples = 1\nvalue = [0, 1]"] ;
367 -> 369 ;
370 [label="Total WBC count(/cumm) <= -0.454\nentropy = 0.65\nsamples = 12\nvalue = [10, 2]"] ;
362 -> 370 ;
371 [label="Neutrophils <= 1.089\nentropy = 1.0\nsamples = 4\nvalue = [2, 2]"] ;
370 -> 371 ;
372 [label="entropy = 0.0\nsamples = 2\nvalue = [2, 0]"] ;
371 -> 372 ;
373 [label="entropy = 0.0\nsamples = 2\nvalue = [0, 2]"] ;
371 -> 373 ;
374 [label="entropy = 0.0\nsamples = 8\nvalue = [8, 0]"] ;
370 -> 374 ;
375 [label="entropy = 0.0\nsamples = 3\nvalue = [0, 3]"] ;
361 -> 375 ;
376 [label="entropy = 0.0\nsamples = 7\nvalue = [0, 7]"] ;
360 -> 376 ;
377 [label="entropy = 0.0\nsamples = 4\nvalue = [4, 0]"] ;
359 -> 377 ;
378 [label="entropy = 0.0\nsamples = 5\nvalue = [5, 0]"] ;
358 -> 378 ;
379 [label="entropy = 0.0\nsamples = 4\nvalue = [0, 4]"] ;
357 -> 379 ;
380 [label="entropy = 0.0\nsamples = 5\nvalue = [5, 0]"] ;
352 -> 380 ;
381 [label="entropy = 0.0\nsamples = 6\nvalue = [0, 6]"] ;
345 -> 381 ;
382 [label="Total Cir.Eosinophils <= 1.774\nentropy = 0.907\nsamples = 31\nvalue = [21, 10]"] ;
340 -> 382 ;
383 [label="Hemoglobin(Hb%) <= -1.283\nentropy = 0.811\nsamples = 28\nvalue = [21, 7]"] ;
382 -> 383 ;
384 [label="Age <= -0.983\nentropy = 0.722\nsamples = 5\nvalue = [1, 4]"] ;
383 -> 384 ;
385 [label="entropy = 0.0\nsamples = 1\nvalue = [1, 0]"] ;
384 -> 385 ;
386 [label="entropy = 0.0\nsamples = 4\nvalue = [0, 4]"] ;
384 -> 386 ;
387 [label="Age <= 1.99\nentropy = 0.559\nsamples = 23\nvalue = [20, 3]"] ;
383 -> 387 ;
388 [label="Age <= -1.654\nentropy = 0.286\nsamples = 20\nvalue = [19, 1]"] ;
387 -> 388 ;
389 [label="entropy = 0.0\nsamples = 1\nvalue = [0, 1]"] ;
388 -> 389 ;
390 [label="entropy = 0.0\nsamples = 19\nvalue = [19, 0]"] ;
388 -> 390 ;
391 [label="Total WBC count(/cumm) <= 0.434\nentropy = 0.918\nsamples = 3\nvalue = [1, 2]"] ;
387 -> 391 ;
392 [label="entropy = 0.0\nsamples = 2\nvalue = [0, 2]"] ;
391 -> 392 ;
393 [label="entropy = 0.0\nsamples = 1\nvalue = [1, 0]"] ;
391 -> 393 ;
394 [label="entropy = 0.0\nsamples = 3\nvalue = [0, 3]"] ;
382 -> 394 ;
395 [label="entropy = 0.0\nsamples = 4\nvalue = [0, 4]"] ;
339 -> 395 ;
396 [label="Platelet Count <= 1.214\nentropy = 0.866\nsamples = 1133\nvalue = [807, 326]"] ;
0 -> 396 [labeldistance=2.5, labelangle=-45, headlabel="False"] ;
397 [label="RDW-CV(%) <= 0.733\nentropy = 0.944\nsamples = 901\nvalue = [575, 326]"] ;
396 -> 397 ;
398 [label="MCHC(g/dl) <= 1.43\nentropy = 0.998\nsamples = 648\nvalue = [340, 308]"] ;
397 -> 398 ;
399 [label="Neutrophils <= -0.799\nentropy = 1.0\nsamples = 618\nvalue = [310, 308]"] ;
398 -> 399 ;
400 [label="MCHC(g/dl) <= -0.96\nentropy = 0.773\nsamples = 110\nvalue = [85, 25]"] ;
399 -> 400 ;
401 [label="entropy = 0.0\nsamples = 27\nvalue = [27, 0]"] ;
400 -> 401 ;
402 [label="HTC/PCV(%) <= 1.176\nentropy = 0.883\nsamples = 83\nvalue = [58.0, 25.0]"] ;
400 -> 402 ;
403 [label="Total Cir.Eosinophils <= 0.402\nentropy = 0.817\nsamples = 75\nvalue = [56, 19]"] ;
402 -> 403 ;
404 [label="Platelet Count <= 0.912\nentropy = 0.607\nsamples = 47\nvalue = [40, 7]"] ;
403 -> 404 ;
405 [label="RDW-CV(%) <= -1.451\nentropy = 0.454\nsamples = 42\nvalue = [38, 4]"] ;
404 -> 405 ;
406 [label="entropy = 0.0\nsamples = 1\nvalue = [0, 1]"] ;
405 -> 406 ;
407 [label="MCH(pg) <= -0.909\nentropy = 0.378\nsamples = 41\nvalue = [38, 3]"] ;
405 -> 407 ;
408 [label="Platelet Count <= 0.311\nentropy = 1.0\nsamples = 2\nvalue = [1, 1]"] ;
407 -> 408 ;
409 [label="entropy = 0.0\nsamples = 1\nvalue = [1, 0]"] ;
408 -> 409 ;
410 [label="entropy = 0.0\nsamples = 1\nvalue = [0, 1]"] ;
408 -> 410 ;
411 [label="Hemoglobin(Hb%) <= -0.151\nentropy = 0.292\nsamples = 39\nvalue = [37, 2]"] ;
407 -> 411 ;
412 [label="Hemoglobin(Hb%) <= -0.781\nentropy = 0.592\nsamples = 14\nvalue = [12, 2]"] ;
411 -> 412 ;
413 [label="entropy = 0.0\nsamples = 7\nvalue = [7, 0]"] ;
412 -> 413 ;
414 [label="Lymphocytes <= 0.049\nentropy = 0.863\nsamples = 7\nvalue = [5, 2]"] ;
412 -> 414 ;
415 [label="entropy = 0.0\nsamples = 1\nvalue = [0, 1]"] ;
414 -> 415 ;
416 [label="Total Cir.Eosinophils <= -0.878\nentropy = 0.65\nsamples = 6\nvalue = [5, 1]"] ;
414 -> 416 ;
417 [label="entropy = 0.0\nsamples = 1\nvalue = [0, 1]"] ;
416 -> 417 ;
418 [label="entropy = 0.0\nsamples = 5\nvalue = [5, 0]"] ;
416 -> 418 ;
419 [label="entropy = 0.0\nsamples = 25\nvalue = [25, 0]"] ;
411 -> 419 ;
420 [label="Platelet Count <= 0.977\nentropy = 0.971\nsamples = 5\nvalue = [2, 3]"] ;
404 -> 420 ;
421 [label="entropy = 0.0\nsamples = 3\nvalue = [0, 3]"] ;
420 -> 421 ;
422 [label="entropy = 0.0\nsamples = 2\nvalue = [2, 0]"] ;
420 -> 422 ;
423 [label="HTC/PCV(%) <= -1.207\nentropy = 0.985\nsamples = 28\nvalue = [16, 12]"] ;
403 -> 423 ;
424 [label="entropy = 0.0\nsamples = 6\nvalue = [6, 0]"] ;
423 -> 424 ;
425 [label="Age <= 0.224\nentropy = 0.994\nsamples = 22\nvalue = [10, 12]"] ;
423 -> 425 ;
426 [label="Platelet Count <= 0.17\nentropy = 0.918\nsamples = 15\nvalue = [10, 5]"] ;
425 -> 426 ;
427 [label="HTC/PCV(%) <= 0.002\nentropy = 0.954\nsamples = 8\nvalue = [3, 5]"] ;
426 -> 427 ;
428 [label="entropy = 0.0\nsamples = 3\nvalue = [0, 3]"] ;
427 -> 428 ;
429 [label="RDW-CV(%) <= 0.396\nentropy = 0.971\nsamples = 5\nvalue = [3, 2]"] ;
427 -> 429 ;
430 [label="Total Cir.Eosinophils <= 0.553\nentropy = 0.918\nsamples = 3\nvalue = [1, 2]"] ;
429 -> 430 ;
431 [label="entropy = 0.0\nsamples = 2\nvalue = [0, 2]"] ;
430 -> 431 ;
432 [label="entropy = 0.0\nsamples = 1\nvalue = [1, 0]"] ;
430 -> 432 ;
433 [label="entropy = 0.0\nsamples = 2\nvalue = [2, 0]"] ;
429 -> 433 ;
434 [label="entropy = 0.0\nsamples = 7\nvalue = [7, 0]"] ;
426 -> 434 ;
435 [label="entropy = 0.0\nsamples = 7\nvalue = [0, 7]"] ;
425 -> 435 ;
436 [label="Total Cir.Eosinophils <= -0.386\nentropy = 0.811\nsamples = 8\nvalue = [2, 6]"] ;
402 -> 436 ;
437 [label="Platelet Count <= 0.801\nentropy = 0.918\nsamples = 3\nvalue = [2, 1]"] ;
436 -> 437 ;
438 [label="entropy = 0.0\nsamples = 2\nvalue = [2, 0]"] ;
437 -> 438 ;
439 [label="entropy = 0.0\nsamples = 1\nvalue = [0, 1]"] ;
437 -> 439 ;
440 [label="entropy = 0.0\nsamples = 5\nvalue = [0, 5]"] ;
436 -> 440 ;
441 [label="Platelet Count <= 0.277\nentropy = 0.991\nsamples = 508\nvalue = [225, 283]"] ;
399 -> 441 ;
442 [label="Lymphocytes <= 0.974\nentropy = 0.99\nsamples = 240\nvalue = [134, 106]"] ;
441 -> 442 ;
443 [label="Total Cir.Eosinophils <= 1.311\nentropy = 0.996\nsamples = 166\nvalue = [77, 89]"] ;
442 -> 443 ;
444 [label="Hemoglobin(Hb%) <= -1.266\nentropy = 0.99\nsamples = 159\nvalue = [70, 89]"] ;
443 -> 444 ;
445 [label="MCH(pg) <= -0.387\nentropy = 0.667\nsamples = 23\nvalue = [4, 19]"] ;
444 -> 445 ;
446 [label="entropy = 0.0\nsamples = 11\nvalue = [0, 11]"] ;
445 -> 446 ;
447 [label="Platelet Count <= 0.027\nentropy = 0.918\nsamples = 12\nvalue = [4, 8]"] ;
445 -> 447 ;
448 [label="Age <= -0.044\nentropy = 0.918\nsamples = 6\nvalue = [4, 2]"] ;
447 -> 448 ;
449 [label="entropy = 0.0\nsamples = 3\nvalue = [3, 0]"] ;
448 -> 449 ;
450 [label="Platelet Count <= -0.225\nentropy = 0.918\nsamples = 3\nvalue = [1, 2]"] ;
448 -> 450 ;
451 [label="entropy = 0.0\nsamples = 1\nvalue = [1, 0]"] ;
450 -> 451 ;
452 [label="entropy = 0.0\nsamples = 2\nvalue = [0, 2]"] ;
450 -> 452 ;
453 [label="entropy = 0.0\nsamples = 6\nvalue = [0, 6]"] ;
447 -> 453 ;
454 [label="RDW-CV(%) <= 0.552\nentropy = 0.999\nsamples = 136\nvalue = [66, 70]"] ;
444 -> 454 ;
455 [label="MCHC(g/dl) <= -1.248\nentropy = 0.997\nsamples = 131\nvalue = [61, 70]"] ;
454 -> 455 ;
456 [label="entropy = 0.0\nsamples = 4\nvalue = [4, 0]"] ;
455 -> 456 ;
457 [label="Age <= 1.99\nentropy = 0.992\nsamples = 127\nvalue = [57, 70]"] ;
455 -> 457 ;
458 [label="Total WBC count(/cumm) <= -0.87\nentropy = 0.997\nsamples = 122\nvalue = [57, 65]"] ;
457 -> 458 ;
459 [label="RDW-CV(%) <= 0.005\nentropy = 0.684\nsamples = 11\nvalue = [9, 2]"] ;
458 -> 459 ;
460 [label="entropy = 0.0\nsamples = 7\nvalue = [7, 0]"] ;
459 -> 460 ;
461 [label="MCHC(g/dl) <= 0.225\nentropy = 1.0\nsamples = 4\nvalue = [2, 2]"] ;
459 -> 461 ;
462 [label="entropy = 0.0\nsamples = 2\nvalue = [0, 2]"] ;
461 -> 462 ;
463 [label="entropy = 0.0\nsamples = 2\nvalue = [2, 0]"] ;
461 -> 463 ;
464 [label="Total WBC count(/cumm) <= 0.339\nentropy = 0.987\nsamples = 111\nvalue = [48, 63]"] ;
458 -> 464 ;
465 [label="MCHC(g/dl) <= -0.037\nentropy = 0.955\nsamples = 93\nvalue = [35, 58]"] ;
464 -> 465 ;
466 [label="Platelet Count <= -0.222\nentropy = 0.999\nsamples = 37\nvalue = [19, 18]"] ;
465 -> 466 ;
467 [label="entropy = 0.0\nsamples = 5\nvalue = [5, 0]"] ;
466 -> 467 ;
468 [label="Sex <= -0.048\nentropy = 0.989\nsamples = 32\nvalue = [14, 18]"] ;
466 -> 468 ;
469 [label="Lymphocytes <= 0.756\nentropy = 0.65\nsamples = 12\nvalue = [2, 10]"] ;
468 -> 469 ;
470 [label="entropy = 0.0\nsamples = 9\nvalue = [0, 9]"] ;
469 -> 470 ;
471 [label="Platelet Count <= -0.162\nentropy = 0.918\nsamples = 3\nvalue = [2, 1]"] ;
469 -> 471 ;
472 [label="entropy = 0.0\nsamples = 2\nvalue = [2, 0]"] ;
471 -> 472 ;
473 [label="entropy = 0.0\nsamples = 1\nvalue = [0, 1]"] ;
471 -> 473 ;
474 [label="RDW-CV(%) <= 0.108\nentropy = 0.971\nsamples = 20\nvalue = [12, 8]"] ;
468 -> 474 ;
475 [label="MCH(pg) <= -0.179\nentropy = 1.0\nsamples = 16\nvalue = [8, 8]"] ;
474 -> 475 ;
476 [label="entropy = 0.0\nsamples = 3\nvalue = [3, 0]"] ;
475 -> 476 ;
477 [label="Platelet Count <= -0.012\nentropy = 0.961\nsamples = 13\nvalue = [5, 8]"] ;
475 -> 477 ;
478 [label="entropy = 0.0\nsamples = 4\nvalue = [0, 4]"] ;
477 -> 478 ;
479 [label="Neutrophils <= -0.34\nentropy = 0.991\nsamples = 9\nvalue = [5, 4]"] ;
477 -> 479 ;
480 [label="entropy = 0.0\nsamples = 3\nvalue = [0, 3]"] ;
479 -> 480 ;
481 [label="Age <= -0.514\nentropy = 0.65\nsamples = 6\nvalue = [5, 1]"] ;
479 -> 481 ;
482 [label="entropy = 0.0\nsamples = 1\nvalue = [0, 1]"] ;
481 -> 482 ;
483 [label="entropy = 0.0\nsamples = 5\nvalue = [5, 0]"] ;
481 -> 483 ;
484 [label="entropy = 0.0\nsamples = 4\nvalue = [4, 0]"] ;
474 -> 484 ;
485 [label="Age <= 1.23\nentropy = 0.863\nsamples = 56\nvalue = [16, 40]"] ;
465 -> 485 ;
486 [label="RDW-CV(%) <= 0.037\nentropy = 0.826\nsamples = 54\nvalue = [14, 40]"] ;
485 -> 486 ;
487 [label="MCH(pg) <= 1.752\nentropy = 0.902\nsamples = 44\nvalue = [14.0, 30.0]"] ;
486 -> 487 ;
488 [label="Total WBC count(/cumm) <= 0.231\nentropy = 0.942\nsamples = 39\nvalue = [14.0, 25.0]"] ;
487 -> 488 ;
489 [label="Platelet Count <= 0.231\nentropy = 0.888\nsamples = 36\nvalue = [11, 25]"] ;
488 -> 489 ;
490 [label="Total WBC count(/cumm) <= -0.578\nentropy = 0.834\nsamples = 34\nvalue = [9, 25]"] ;
489 -> 490 ;
491 [label="RDW-CV(%) <= -0.986\nentropy = 0.954\nsamples = 8\nvalue = [5, 3]"] ;
490 -> 491 ;
492 [label="entropy = 0.0\nsamples = 4\nvalue = [4, 0]"] ;
491 -> 492 ;
493 [label="Lymphocytes <= 0.756\nentropy = 0.811\nsamples = 4\nvalue = [1, 3]"] ;
491 -> 493 ;
494 [label="entropy = 0.0\nsamples = 3\nvalue = [0, 3]"] ;
493 -> 494 ;
495 [label="entropy = 0.0\nsamples = 1\nvalue = [1, 0]"] ;
493 -> 495 ;
496 [label="Neutrophils <= 0.477\nentropy = 0.619\nsamples = 26\nvalue = [4, 22]"] ;
490 -> 496 ;
497 [label="MCH(pg) <= -1.613\nentropy = 0.258\nsamples = 23\nvalue = [1, 22]"] ;
496 -> 497 ;
498 [label="Total Cir.Eosinophils <= -0.617\nentropy = 1.0\nsamples = 2\nvalue = [1, 1]"] ;
497 -> 498 ;
499 [label="entropy = 0.0\nsamples = 1\nvalue = [0, 1]"] ;
498 -> 499 ;
500 [label="entropy = 0.0\nsamples = 1\nvalue = [1, 0]"] ;
498 -> 500 ;
501 [label="entropy = 0.0\nsamples = 21\nvalue = [0, 21]"] ;
497 -> 501 ;
502 [label="entropy = 0.0\nsamples = 3\nvalue = [3, 0]"] ;
496 -> 502 ;
503 [label="entropy = 0.0\nsamples = 2\nvalue = [2, 0]"] ;
489 -> 503 ;
504 [label="entropy = 0.0\nsamples = 3\nvalue = [3, 0]"] ;
488 -> 504 ;
505 [label="entropy = 0.0\nsamples = 5\nvalue = [0, 5]"] ;
487 -> 505 ;
506 [label="entropy = 0.0\nsamples = 10\nvalue = [0, 10]"] ;
486 -> 506 ;
507 [label="entropy = 0.0\nsamples = 2\nvalue = [2, 0]"] ;
485 -> 507 ;
508 [label="Lymphocytes <= 0.321\nentropy = 0.852\nsamples = 18\nvalue = [13, 5]"] ;
464 -> 508 ;
509 [label="MCHC(g/dl) <= 0.487\nentropy = 0.994\nsamples = 11\nvalue = [6, 5]"] ;
508 -> 509 ;
510 [label="Age <= 0.179\nentropy = 0.863\nsamples = 7\nvalue = [2, 5]"] ;
509 -> 510 ;
511 [label="entropy = 0.0\nsamples = 4\nvalue = [0, 4]"] ;
510 -> 511 ;
512 [label="Total Cir.Eosinophils <= 0.46\nentropy = 0.918\nsamples = 3\nvalue = [2, 1]"] ;
510 -> 512 ;
513 [label="entropy = 0.0\nsamples = 2\nvalue = [2, 0]"] ;
512 -> 513 ;
514 [label="entropy = 0.0\nsamples = 1\nvalue = [0, 1]"] ;
512 -> 514 ;
515 [label="entropy = 0.0\nsamples = 4\nvalue = [4, 0]"] ;
509 -> 515 ;
516 [label="entropy = 0.0\nsamples = 7\nvalue = [7, 0]"] ;
508 -> 516 ;
517 [label="entropy = 0.0\nsamples = 5\nvalue = [0, 5]"] ;
457 -> 517 ;
518 [label="entropy = 0.0\nsamples = 5\nvalue = [5, 0]"] ;
454 -> 518 ;
519 [label="entropy = 0.0\nsamples = 7\nvalue = [7, 0]"] ;
443 -> 519 ;
520 [label="MCH(pg) <= 0.878\nentropy = 0.778\nsamples = 74\nvalue = [57, 17]"] ;
442 -> 520 ;
521 [label="RDW-CV(%) <= -0.812\nentropy = 0.585\nsamples = 57\nvalue = [49, 8]"] ;
520 -> 521 ;
522 [label="MCHC(g/dl) <= 0.539\nentropy = 1.0\nsamples = 10\nvalue = [5, 5]"] ;
521 -> 522 ;
523 [label="MCH(pg) <= -0.393\nentropy = 0.863\nsamples = 7\nvalue = [5, 2]"] ;
522 -> 523 ;
524 [label="HTC/PCV(%) <= -0.56\nentropy = 0.918\nsamples = 3\nvalue = [1, 2]"] ;
523 -> 524 ;
525 [label="entropy = 0.0\nsamples = 1\nvalue = [1, 0]"] ;
524 -> 525 ;
526 [label="entropy = 0.0\nsamples = 2\nvalue = [0, 2]"] ;
524 -> 526 ;
527 [label="entropy = 0.0\nsamples = 4\nvalue = [4, 0]"] ;
523 -> 527 ;
528 [label="entropy = 0.0\nsamples = 3\nvalue = [0, 3]"] ;
522 -> 528 ;
529 [label="MCH(pg) <= -0.463\nentropy = 0.342\nsamples = 47\nvalue = [44.0, 3.0]"] ;
521 -> 529 ;
530 [label="HTC/PCV(%) <= -0.043\nentropy = 0.811\nsamples = 12\nvalue = [9, 3]"] ;
529 -> 530 ;
531 [label="entropy = 0.0\nsamples = 8\nvalue = [8, 0]"] ;
530 -> 531 ;
532 [label="Total Cir.Eosinophils <= -0.252\nentropy = 0.811\nsamples = 4\nvalue = [1, 3]"] ;
530 -> 532 ;
533 [label="entropy = 0.0\nsamples = 1\nvalue = [1, 0]"] ;
532 -> 533 ;
534 [label="entropy = 0.0\nsamples = 3\nvalue = [0, 3]"] ;
532 -> 534 ;
535 [label="entropy = 0.0\nsamples = 35\nvalue = [35, 0]"] ;
529 -> 535 ;
536 [label="HTC/PCV(%) <= 0.448\nentropy = 0.998\nsamples = 17\nvalue = [8, 9]"] ;
520 -> 536 ;
537 [label="entropy = 0.0\nsamples = 6\nvalue = [0, 6]"] ;
536 -> 537 ;
538 [label="Total Cir.Eosinophils <= 0.61\nentropy = 0.845\nsamples = 11\nvalue = [8, 3]"] ;
536 -> 538 ;
539 [label="Age <= 0.291\nentropy = 0.503\nsamples = 9\nvalue = [8, 1]"] ;
538 -> 539 ;
540 [label="entropy = 0.0\nsamples = 6\nvalue = [6, 0]"] ;
539 -> 540 ;
541 [label="Age <= 0.671\nentropy = 0.918\nsamples = 3\nvalue = [2, 1]"] ;
539 -> 541 ;
542 [label="entropy = 0.0\nsamples = 1\nvalue = [0, 1]"] ;
541 -> 542 ;
543 [label="entropy = 0.0\nsamples = 2\nvalue = [2, 0]"] ;
541 -> 543 ;
544 [label="entropy = 0.0\nsamples = 2\nvalue = [0, 2]"] ;
538 -> 544 ;
545 [label="Total Cir.Eosinophils <= -0.889\nentropy = 0.924\nsamples = 268\nvalue = [91, 177]"] ;
441 -> 545 ;
546 [label="Lymphocytes <= 0.103\nentropy = 0.61\nsamples = 20\nvalue = [17, 3]"] ;
545 -> 546 ;
547 [label="entropy = 0.0\nsamples = 12\nvalue = [12, 0]"] ;
546 -> 547 ;
548 [label="Total WBC count(/cumm) <= -0.244\nentropy = 0.954\nsamples = 8\nvalue = [5, 3]"] ;
546 -> 548 ;
549 [label="Neutrophils <= 1.242\nentropy = 0.811\nsamples = 4\nvalue = [1, 3]"] ;
548 -> 549 ;
550 [label="entropy = 0.0\nsamples = 3\nvalue = [0, 3]"] ;
549 -> 550 ;
551 [label="entropy = 0.0\nsamples = 1\nvalue = [1, 0]"] ;
549 -> 551 ;
552 [label="entropy = 0.0\nsamples = 4\nvalue = [4, 0]"] ;
548 -> 552 ;
553 [label="Total Cir.Eosinophils <= 1.265\nentropy = 0.879\nsamples = 248\nvalue = [74, 174]"] ;
545 -> 553 ;
554 [label="MCHC(g/dl) <= -0.719\nentropy = 0.853\nsamples = 241\nvalue = [67, 174]"] ;
553 -> 554 ;
555 [label="Hemoglobin(Hb%) <= -0.097\nentropy = 0.454\nsamples = 42\nvalue = [4, 38]"] ;
554 -> 555 ;
556 [label="HTC/PCV(%) <= -0.417\nentropy = 0.787\nsamples = 17\nvalue = [4, 13]"] ;
555 -> 556 ;
557 [label="Total WBC count(/cumm) <= -0.474\nentropy = 0.991\nsamples = 9\nvalue = [4, 5]"] ;
556 -> 557 ;
558 [label="entropy = 0.0\nsamples = 4\nvalue = [0, 4]"] ;
557 -> 558 ;
559 [label="RDW-CV(%) <= -0.457\nentropy = 0.722\nsamples = 5\nvalue = [4, 1]"] ;
557 -> 559 ;
560 [label="entropy = 0.0\nsamples = 3\nvalue = [3, 0]"] ;
559 -> 560 ;
561 [label="Total WBC count(/cumm) <= 0.243\nentropy = 1.0\nsamples = 2\nvalue = [1, 1]"] ;
559 -> 561 ;
562 [label="entropy = 0.0\nsamples = 1\nvalue = [0, 1]"] ;
561 -> 562 ;
563 [label="entropy = 0.0\nsamples = 1\nvalue = [1, 0]"] ;
561 -> 563 ;
564 [label="entropy = 0.0\nsamples = 8\nvalue = [0, 8]"] ;
556 -> 564 ;
565 [label="entropy = 0.0\nsamples = 25\nvalue = [0, 25]"] ;
555 -> 565 ;
566 [label="Age <= -0.134\nentropy = 0.901\nsamples = 199\nvalue = [63, 136]"] ;
554 -> 566 ;
567 [label="Total Cir.Eosinophils <= 0.674\nentropy = 0.991\nsamples = 79\nvalue = [35, 44]"] ;
566 -> 567 ;
568 [label="Neutrophils <= 2.059\nentropy = 0.999\nsamples = 73\nvalue = [35, 38]"] ;
567 -> 568 ;
569 [label="Neutrophils <= 0.579\nentropy = 1.0\nsamples = 69\nvalue = [35, 34]"] ;
568 -> 569 ;
570 [label="Platelet Count <= 1.105\nentropy = 0.993\nsamples = 60\nvalue = [27, 33]"] ;
569 -> 570 ;
571 [label="Total WBC count(/cumm) <= 0.119\nentropy = 0.969\nsamples = 53\nvalue = [21, 32]"] ;
570 -> 571 ;
572 [label="Neutrophils <= -0.391\nentropy = 0.868\nsamples = 38\nvalue = [11, 27]"] ;
571 -> 572 ;
573 [label="entropy = 0.0\nsamples = 11\nvalue = [0, 11]"] ;
572 -> 573 ;
574 [label="Lymphocytes <= 0.212\nentropy = 0.975\nsamples = 27\nvalue = [11, 16]"] ;
572 -> 574 ;
575 [label="entropy = 0.0\nsamples = 5\nvalue = [0, 5]"] ;
574 -> 575 ;
576 [label="Lymphocytes <= 0.484\nentropy = 1.0\nsamples = 22\nvalue = [11, 11]"] ;
574 -> 576 ;
577 [label="entropy = 0.0\nsamples = 5\nvalue = [5, 0]"] ;
576 -> 577 ;
578 [label="Neutrophils <= 0.222\nentropy = 0.937\nsamples = 17\nvalue = [6, 11]"] ;
576 -> 578 ;
579 [label="MCH(pg) <= -1.483\nentropy = 0.619\nsamples = 13\nvalue = [2, 11]"] ;
578 -> 579 ;
580 [label="Total Cir.Eosinophils <= -0.154\nentropy = 0.918\nsamples = 3\nvalue = [2, 1]"] ;
579 -> 580 ;
581 [label="entropy = 0.0\nsamples = 1\nvalue = [0, 1]"] ;
580 -> 581 ;
582 [label="entropy = 0.0\nsamples = 2\nvalue = [2, 0]"] ;
580 -> 582 ;
583 [label="entropy = 0.0\nsamples = 10\nvalue = [0, 10]"] ;
579 -> 583 ;
584 [label="entropy = 0.0\nsamples = 4\nvalue = [4, 0]"] ;
578 -> 584 ;
585 [label="HTC/PCV(%) <= 0.192\nentropy = 0.918\nsamples = 15\nvalue = [10, 5]"] ;
571 -> 585 ;
586 [label="Neutrophils <= -0.595\nentropy = 1.0\nsamples = 10\nvalue = [5, 5]"] ;
585 -> 586 ;
587 [label="entropy = 0.0\nsamples = 3\nvalue = [3, 0]"] ;
586 -> 587 ;
588 [label="Total WBC count(/cumm) <= 0.784\nentropy = 0.863\nsamples = 7\nvalue = [2, 5]"] ;
586 -> 588 ;
589 [label="entropy = 0.0\nsamples = 5\nvalue = [0, 5]"] ;
588 -> 589 ;
590 [label="entropy = 0.0\nsamples = 2\nvalue = [2, 0]"] ;
588 -> 590 ;
591 [label="entropy = 0.0\nsamples = 5\nvalue = [5, 0]"] ;
585 -> 591 ;
592 [label="Age <= -0.715\nentropy = 0.592\nsamples = 7\nvalue = [6, 1]"] ;
570 -> 592 ;
593 [label="entropy = 0.0\nsamples = 1\nvalue = [0, 1]"] ;
592 -> 593 ;
594 [label="entropy = 0.0\nsamples = 6\nvalue = [6, 0]"] ;
592 -> 594 ;
595 [label="Age <= -1.453\nentropy = 0.503\nsamples = 9\nvalue = [8, 1]"] ;
569 -> 595 ;
596 [label="entropy = 0.0\nsamples = 1\nvalue = [0, 1]"] ;
595 -> 596 ;
597 [label="entropy = 0.0\nsamples = 8\nvalue = [8, 0]"] ;
595 -> 597 ;
598 [label="entropy = 0.0\nsamples = 4\nvalue = [0, 4]"] ;
568 -> 598 ;
599 [label="entropy = 0.0\nsamples = 6\nvalue = [0, 6]"] ;
567 -> 599 ;
600 [label="HTC/PCV(%) <= 0.937\nentropy = 0.784\nsamples = 120\nvalue = [28, 92]"] ;
566 -> 600 ;
601 [label="Hemoglobin(Hb%) <= 1.348\nentropy = 0.857\nsamples = 96\nvalue = [27, 69]"] ;
600 -> 601 ;
602 [label="Lymphocytes <= -1.747\nentropy = 0.898\nsamples = 86\nvalue = [27, 59]"] ;
601 -> 602 ;
603 [label="entropy = 0.0\nsamples = 7\nvalue = [0, 7]"] ;
602 -> 603 ;
604 [label="Total WBC count(/cumm) <= 1.829\nentropy = 0.927\nsamples = 79\nvalue = [27, 52]"] ;
602 -> 604 ;
605 [label="HTC/PCV(%) <= 0.491\nentropy = 0.9\nsamples = 76\nvalue = [24, 52]"] ;
604 -> 605 ;
606 [label="Hemoglobin(Hb%) <= -1.168\nentropy = 0.818\nsamples = 63\nvalue = [16, 47]"] ;
605 -> 606 ;
607 [label="entropy = 0.0\nsamples = 12\nvalue = [0, 12]"] ;
606 -> 607 ;
608 [label="Hemoglobin(Hb%) <= -0.71\nentropy = 0.897\nsamples = 51\nvalue = [16, 35]"] ;
606 -> 608 ;
609 [label="MCHC(g/dl) <= 0.88\nentropy = 0.544\nsamples = 8\nvalue = [7, 1]"] ;
608 -> 609 ;
610 [label="entropy = 0.0\nsamples = 6\nvalue = [6, 0]"] ;
609 -> 610 ;
611 [label="Lymphocytes <= 0.158\nentropy = 1.0\nsamples = 2\nvalue = [1, 1]"] ;
609 -> 611 ;
612 [label="entropy = 0.0\nsamples = 1\nvalue = [1, 0]"] ;
611 -> 612 ;
613 [label="entropy = 0.0\nsamples = 1\nvalue = [0, 1]"] ;
611 -> 613 ;
614 [label="MCHC(g/dl) <= 0.801\nentropy = 0.74\nsamples = 43\nvalue = [9, 34]"] ;
608 -> 614 ;
615 [label="Neutrophils <= -0.391\nentropy = 0.869\nsamples = 31\nvalue = [9, 22]"] ;
614 -> 615 ;
616 [label="entropy = 0.0\nsamples = 8\nvalue = [0, 8]"] ;
615 -> 616 ;
617 [label="HTC/PCV(%) <= -0.391\nentropy = 0.966\nsamples = 23\nvalue = [9, 14]"] ;
615 -> 617 ;
618 [label="Platelet Count <= 0.463\nentropy = 0.75\nsamples = 14\nvalue = [3, 11]"] ;
617 -> 618 ;
619 [label="Age <= 0.581\nentropy = 0.918\nsamples = 3\nvalue = [2, 1]"] ;
618 -> 619 ;
620 [label="entropy = 0.0\nsamples = 1\nvalue = [0, 1]"] ;
619 -> 620 ;
621 [label="entropy = 0.0\nsamples = 2\nvalue = [2, 0]"] ;
619 -> 621 ;
622 [label="Age <= 0.0\nentropy = 0.439\nsamples = 11\nvalue = [1, 10]"] ;
618 -> 622 ;
623 [label="entropy = 0.0\nsamples = 1\nvalue = [1, 0]"] ;
622 -> 623 ;
624 [label="entropy = 0.0\nsamples = 10\nvalue = [0, 10]"] ;
622 -> 624 ;
625 [label="Total Cir.Eosinophils <= 0.448\nentropy = 0.918\nsamples = 9\nvalue = [6, 3]"] ;
617 -> 625 ;
626 [label="Age <= 0.783\nentropy = 0.811\nsamples = 4\nvalue = [1, 3]"] ;
625 -> 626 ;
627 [label="entropy = 0.0\nsamples = 1\nvalue = [1, 0]"] ;
626 -> 627 ;
628 [label="entropy = 0.0\nsamples = 3\nvalue = [0, 3]"] ;
626 -> 628 ;
629 [label="entropy = 0.0\nsamples = 5\nvalue = [5, 0]"] ;
625 -> 629 ;
630 [label="entropy = 0.0\nsamples = 12\nvalue = [0, 12]"] ;
614 -> 630 ;
631 [label="Hemoglobin(Hb%) <= 0.135\nentropy = 0.961\nsamples = 13\nvalue = [8, 5]"] ;
605 -> 631 ;
632 [label="Hemoglobin(Hb%) <= -1.515\nentropy = 0.954\nsamples = 8\nvalue = [3, 5]"] ;
631 -> 632 ;
633 [label="entropy = 0.0\nsamples = 3\nvalue = [3, 0]"] ;
632 -> 633 ;
634 [label="entropy = 0.0\nsamples = 5\nvalue = [0, 5]"] ;
632 -> 634 ;
635 [label="entropy = 0.0\nsamples = 5\nvalue = [5, 0]"] ;
631 -> 635 ;
636 [label="entropy = 0.0\nsamples = 3\nvalue = [3, 0]"] ;
604 -> 636 ;
637 [label="entropy = 0.0\nsamples = 10\nvalue = [0, 10]"] ;
601 -> 637 ;
638 [label="Total Cir.Eosinophils <= -0.565\nentropy = 0.25\nsamples = 24\nvalue = [1, 23]"] ;
600 -> 638 ;
639 [label="Platelet Count <= 0.562\nentropy = 0.811\nsamples = 4\nvalue = [1, 3]"] ;
638 -> 639 ;
640 [label="entropy = 0.0\nsamples = 1\nvalue = [1, 0]"] ;
639 -> 640 ;
641 [label="entropy = 0.0\nsamples = 3\nvalue = [0, 3]"] ;
639 -> 641 ;
642 [label="entropy = 0.0\nsamples = 20\nvalue = [0, 20]"] ;
638 -> 642 ;
643 [label="entropy = 0.0\nsamples = 7\nvalue = [7, 0]"] ;
553 -> 643 ;
644 [label="entropy = 0.0\nsamples = 30\nvalue = [30, 0]"] ;
398 -> 644 ;
645 [label="HTC/PCV(%) <= -0.438\nentropy = 0.37\nsamples = 253\nvalue = [235, 18]"] ;
397 -> 645 ;
646 [label="entropy = 0.0\nsamples = 41\nvalue = [41, 0]"] ;
645 -> 646 ;
647 [label="HTC/PCV(%) <= -0.002\nentropy = 0.419\nsamples = 212\nvalue = [194, 18]"] ;
645 -> 647 ;
648 [label="MCHC(g/dl) <= -0.732\nentropy = 0.902\nsamples = 22\nvalue = [15.0, 7.0]"] ;
647 -> 648 ;
649 [label="Total Cir.Eosinophils <= 0.147\nentropy = 0.918\nsamples = 9\nvalue = [3, 6]"] ;
648 -> 649 ;
650 [label="entropy = 0.0\nsamples = 5\nvalue = [0, 5]"] ;
649 -> 650 ;
651 [label="Total Cir.Eosinophils <= 0.784\nentropy = 0.811\nsamples = 4\nvalue = [3, 1]"] ;
649 -> 651 ;
652 [label="entropy = 0.0\nsamples = 3\nvalue = [3, 0]"] ;
651 -> 652 ;
653 [label="entropy = 0.0\nsamples = 1\nvalue = [0, 1]"] ;
651 -> 653 ;
654 [label="HTC/PCV(%) <= -0.067\nentropy = 0.391\nsamples = 13\nvalue = [12, 1]"] ;
648 -> 654 ;
655 [label="entropy = 0.0\nsamples = 11\nvalue = [11, 0]"] ;
654 -> 655 ;
656 [label="Total Cir.Eosinophils <= 0.807\nentropy = 1.0\nsamples = 2\nvalue = [1, 1]"] ;
654 -> 656 ;
657 [label="entropy = 0.0\nsamples = 1\nvalue = [1, 0]"] ;
656 -> 657 ;
658 [label="entropy = 0.0\nsamples = 1\nvalue = [0, 1]"] ;
656 -> 658 ;
659 [label="Hemoglobin(Hb%) <= -0.858\nentropy = 0.319\nsamples = 190\nvalue = [179, 11]"] ;
647 -> 659 ;
660 [label="Neutrophils <= -1.717\nentropy = 0.592\nsamples = 35\nvalue = [30, 5]"] ;
659 -> 660 ;
661 [label="entropy = 0.0\nsamples = 2\nvalue = [0, 2]"] ;
660 -> 661 ;
662 [label="MCH(pg) <= -0.453\nentropy = 0.439\nsamples = 33\nvalue = [30, 3]"] ;
660 -> 662 ;
663 [label="Age <= -1.028\nentropy = 0.971\nsamples = 5\nvalue = [3, 2]"] ;
662 -> 663 ;
664 [label="entropy = 0.0\nsamples = 3\nvalue = [3, 0]"] ;
663 -> 664 ;
665 [label="entropy = 0.0\nsamples = 2\nvalue = [0, 2]"] ;
663 -> 665 ;
666 [label="Platelet Count <= -0.262\nentropy = 0.222\nsamples = 28\nvalue = [27, 1]"] ;
662 -> 666 ;
667 [label="Total Cir.Eosinophils <= 0.553\nentropy = 1.0\nsamples = 2\nvalue = [1, 1]"] ;
666 -> 667 ;
668 [label="entropy = 0.0\nsamples = 1\nvalue = [0, 1]"] ;
667 -> 668 ;
669 [label="entropy = 0.0\nsamples = 1\nvalue = [1, 0]"] ;
667 -> 669 ;
670 [label="entropy = 0.0\nsamples = 26\nvalue = [26, 0]"] ;
666 -> 670 ;
671 [label="Sex <= -0.048\nentropy = 0.236\nsamples = 155\nvalue = [149, 6]"] ;
659 -> 671 ;
672 [label="entropy = 0.0\nsamples = 71\nvalue = [71, 0]"] ;
671 -> 672 ;
673 [label="Hemoglobin(Hb%) <= 0.294\nentropy = 0.371\nsamples = 84\nvalue = [78, 6]"] ;
671 -> 673 ;
674 [label="entropy = 0.0\nsamples = 31\nvalue = [31, 0]"] ;
673 -> 674 ;
675 [label="Hemoglobin(Hb%) <= 0.307\nentropy = 0.51\nsamples = 53\nvalue = [47, 6]"] ;
673 -> 675 ;
676 [label="entropy = 0.0\nsamples = 1\nvalue = [0, 1]"] ;
675 -> 676 ;
677 [label="Platelet Count <= 0.088\nentropy = 0.457\nsamples = 52\nvalue = [47, 5]"] ;
675 -> 677 ;
678 [label="entropy = 0.0\nsamples = 21\nvalue = [21, 0]"] ;
677 -> 678 ;
679 [label="Hemoglobin(Hb%) <= 0.661\nentropy = 0.637\nsamples = 31\nvalue = [26, 5]"] ;
677 -> 679 ;
680 [label="entropy = 0.0\nsamples = 9\nvalue = [9, 0]"] ;
679 -> 680 ;
681 [label="Hemoglobin(Hb%) <= 0.72\nentropy = 0.773\nsamples = 22\nvalue = [17, 5]"] ;
679 -> 681 ;
682 [label="entropy = 0.0\nsamples = 2\nvalue = [0, 2]"] ;
681 -> 682 ;
683 [label="Total Cir.Eosinophils <= 0.419\nentropy = 0.61\nsamples = 20\nvalue = [17, 3]"] ;
681 -> 683 ;
684 [label="Lymphocytes <= 0.974\nentropy = 0.811\nsamples = 12\nvalue = [9, 3]"] ;
683 -> 684 ;
685 [label="entropy = 0.0\nsamples = 5\nvalue = [5, 0]"] ;
684 -> 685 ;
686 [label="Total Cir.Eosinophils <= -0.119\nentropy = 0.985\nsamples = 7\nvalue = [4, 3]"] ;
684 -> 686 ;
687 [label="Hemoglobin(Hb%) <= 0.886\nentropy = 0.722\nsamples = 5\nvalue = [4, 1]"] ;
686 -> 687 ;
688 [label="entropy = 0.0\nsamples = 1\nvalue = [0, 1]"] ;
687 -> 688 ;
689 [label="entropy = 0.0\nsamples = 4\nvalue = [4, 0]"] ;
687 -> 689 ;
690 [label="entropy = 0.0\nsamples = 2\nvalue = [0, 2]"] ;
686 -> 690 ;
691 [label="entropy = 0.0\nsamples = 8\nvalue = [8, 0]"] ;
683 -> 691 ;
692 [label="entropy = 0.0\nsamples = 232\nvalue = [232, 0]"] ;
396 -> 692 ;
}